{
  "weights": [
    [
      -0.791144095453955,
      1.5382706747736385,
      0.22302092458518766,
      0.06974813174556882,
      -1.1935673971448049,
      1.6380564556449961,
      0.8161780526084641,
      -0.16760532246228177,
      -0.3798972836951471,
      1.4201043993872382,
      0.8424515885406647,
      -1.891207497581349,
      0.5583696675076739,
      1.9754258899998485,
      0.610517492078932,
      1.1956270150466528,
      1.99236897394701,
      1.9638957059337407,
      1.1503013589828583,
      -0.7839639298805183,
      1.520373532552628,
      0.8392194454820282,
      1.0318413043012318,
      -1.7685923527789456,
      1.6187533541313277,
      -0.9982964223211068,
      -1.0305377961361133,
      0.035324089831266114,
      0.35787065826345366,
      -1.8672103344411006,
      1.5783593572806414,
      0.09295769139875443,
      -0.7427686741095814,
      1.3007426387214993,
      -1.3768379005448796,
      -0.35105914373002367,
      1.6519826200378152,
      -1.2385760833767225,
      1.6651879317588154,
      -1.2482409883093633,
      -1.453342928648424,
      0.3267157190156329,
      -1.6351444100940693,
      1.5534645930935458,
      1.7845955007112382,
      0.8260882599538224,
      1.0389311399015657,
      -1.6850307536426534,
      1.6554900401263977,
      -1.7935748381016898,
      -0.3648798235217079,
      -0.3112087072312244,
      -0.600832288654944,
      0.20188556883263686,
      -0.47401919069289455,
      1.346375099219097,
      1.500976725619303,
      -1.918076897002618,
      -0.32632229066981466,
      0.10798926799042263,
      1.6290946113268232,
      0.8597075947072751,
      1.3122935488676255,
      -0.5607849392436339,
      0.8392757484237503,
      -0.026716586436702272,
      -0.6174366110391851,
      0.7074954723222424,
      0.941926139323586,
      0.13392047884690594,
      -0.4824083634120697,
      -0.6728488257913305
    ],
    [
      -1.3079828739124908,
      0.9596999992030693,
      2.369970848246354,
      -0.7472728407447153,
      0.42059773946774115,
      1.027276060494759,
      -1.734677650625092,
      1.5296178769841688,
      -1.664436868567079,
      -0.3313409716962825,
      -0.7970394132434162,
      -0.2805846776103422,
      0.47006785289110287,
      -0.9007069053634309,
      0.3679997022437851,
      -1.801914756225571,
      1.1808663917708504,
      -1.6655126468512247,
      -1.578642003147083,
      -0.7997544942231976,
      1.811786006810145,
      0.6873180368101145,
      -1.4105492015084833,
      -0.3602650449128042,
      -0.3611907257399096,
      0.12150074510650732,
      1.8541388987699392,
      0.39815659838314943,
      1.2246955068552952,
      -0.348935010485226,
      -1.22143526725836,
      1.7874081919127374,
      -1.2582974791837316,
      -1.0929542052213108,
      -0.26347328287152116,
      0.11034575501628474,
      1.685942656903972,
      -0.5590089842398944,
      1.9807979038046435,
      -1.1517693610699498,
      -0.14734471195292453,
      0.9194478876931331,
      1.3475356594989503,
      0.7982186673909899,
      1.9148901098358246,
      1.5396397916109983,
      0.10909491590880993,
      0.08789772134479357,
      -0.6197036000834331,
      -0.5193912923205461,
      1.4625820425462548,
      0.043666365698901366,
      -1.2186754097890322,
      0.04062471227072173,
      -1.5379711742782112,
      1.0507304001883995,
      1.8404258321906575,
      -1.1875366617242094,
      0.6094705485092078,
      -0.8477459601109825,
      1.5408845173859094,
      1.7418786368359775,
      -0.34563284362927327,
      0.1530013369725518,
      -1.5110373508598203,
      0.9614721146164964,
      1.2241832848721463,
      -0.08234737549226878,
      1.657466111591023,
      0.83071667982587,
      -1.0098088376180527,
      0.686370912189715
    ],
    [
      1.458346027699303,
      0.9235147491775741,
      0.5207885636190648,
      0.37904668235580896,
      1.3982662566411896,
      -1.2388389379957365,
      -1.210156985971012,
      -0.9278687114722066,
      0.9100970256711696,
      -0.7003366098571409,
      0.6688300443111315,
      0.8801628383178439,
      0.37456155826164395,
      0.8955610226589474,
      0.29770172810437867,
      0.9323002136817502,
      0.03977178433992812,
      -1.7704891123502575,
      0.8638363991817339,
      -0.4159336749554132,
      -0.5933115329896221,
      1.284093897588545,
      -0.5771748960721839,
      0.15781036618296707,
      1.6928039738017855,
      -0.018028690306097772,
      1.3926207044752204,
      0.042917797860955176,
      -0.4403966808513573,
      0.48720144900739815,
      -0.033224342149940966,
      -1.2715126044490432,
      -1.5207999685430407,
      -0.5436156149825777,
      1.5301845715219669,
      -1.845021387208572,
      0.8374387577445237,
      -0.1515131997987762,
      -0.11902678812658518,
      2.097674400985395,
      -1.2063660685064699,
      0.9131208630950738,
      0.4880500277942543,
      1.770690359395629,
      -1.4979060621939748,
      1.3647179718196165,
      1.7488046150671481,
      0.15839466936356583,
      -1.1931622030544622,
      1.8879577018895235,
      1.1251463954501428,
      1.5945681759282442,
      1.8064116790422178,
      1.7458691488501206,
      0.892660448336561,
      1.5209058370357607,
      -1.666460370300947,
      0.36990422687663305,
      0.7655278184255785,
      1.4276380465349474,
      -0.2951102131274741,
      1.198363056312707,
      0.0704050756522836,
      0.740398361019893,
      0.5082276079770986,
      -1.7479109172245666,
      -0.17006789571891723,
      -0.30517433345388767,
      -1.7904367073429883,
      1.1325953778376707,
      -1.9741498144364789,
      0.9682304638913264
    ],
    [
      -0.858118554081087,
      -1.6221752524300905,
      -0.2793740050090374,
      -0.7167557998296585,
      -0.8789370143681259,
      1.9568604987792835,
      -1.6427928574964028,
      -1.4612470686274461,
      -0.6190607905754666,
      1.027508131877287,
      -0.31198980347901895,
      0.8140354637549851,
      -0.24507300507938634,
      1.9362488978254966,
      0.9814859431632676,
      0.08284413900654286,
      -0.7073967882323355,
      1.7247415661482473,
      0.8280010375132996,
      -0.07177060475887487,
      1.7181730910892767,
      2.6139346267593995,
      -0.026326002003459692,
      -1.2598640362035542,
      0.38573064213530284,
      -0.83603859402045,
      -0.3631154409138624,
      0.6853759463538962,
      -1.249971413755187,
      1.495289453187854,
      0.7574680339774702,
      -1.8256537867161393,
      1.4670255199784465,
      0.5889618163502544,
      0.1927604452075693,
      -1.4714660491720286,
      0.12974984530715883,
      -0.7382321481215044,
      0.3810235279362191,
      1.4270034208175026,
      -0.05871352985502831,
      -0.7266531333188917,
      -1.4967570054159607,
      -1.272958577055709,
      -1.6635121791916347,
      0.14104351779753888,
      0.43700505694474767,
      -0.18875676188057078,
      -1.4284187321886392,
      1.3818071169084174,
      -1.3845177374369237,
      -0.16721795074607293,
      0.6551394383834106,
      -0.8685195058659563,
      -1.0692930927679152,
      -1.069592817792512,
      1.6566028187425825,
      1.427452107578735,
      -1.2422032335234308,
      0.013243399533659606,
      0.19550954576808532,
      -1.6718143944510597,
      1.3141275897588134,
      -1.7469941057858112,
      -0.3209716391373707,
      0.18008658431587676,
      1.5421214145741509,
      1.8664925661887102,
      0.6856406892693654,
      0.9796442429599175,
      0.5512527042612678,
      0.6100701000443971
    ],
    [
      1.4007186254714172,
      1.678233425643569,
      -1.6750821359010075,
      -1.9264626594380374,
      -0.17694120700368554,
      1.415215333071969,
      1.9493781681873674,
      -0.6394574916681677,
      -1.0638596709445496,
      -0.9604243367009557,
      -1.2311552607776184,
      -0.3092870124949876,
      0.5059080075043818,
      -1.5284829987696078,
      -0.40509565105342116,
      1.9584763150791415,
      1.0668298583766953,
      -0.6230295278289253,
      -1.1670929618944959,
      -0.9807891019961676,
      1.0267017888970793,
      2.5366239539358766,
      -1.6956733219924232,
      0.9188638745199711,
      -0.34768545619279223,
      1.55912980572288,
      1.6493861153176717,
      0.3228352645970318,
      -0.6637705999735006,
      0.4469539480567537,
      1.032162686931665,
      0.2234005049690051,
      0.49332870148664476,
      -0.6784862383689658,
      1.4726090826899068,
      1.2544595504132738,
      0.9722999041843234,
      -0.7532200185219011,
      1.440936650681623,
      1.4201404025128923,
      0.779023034500681,
      -1.2594474472783546,
      1.7640988497879677,
      0.2436834873743985,
      -1.518323239539054,
      -0.4444947489072,
      1.1224797862243143,
      1.0009285888278399,
      -1.4294781026333645,
      -0.17644187766541464,
      1.1710203192748256,
      0.8340683191048885,
      -0.39030356596126303,
      -0.16258637609728765,
      -1.8408865468552422,
      -0.7853001616067914,
      -0.5541886778427818,
      1.8835558476397702,
      1.60771477758406,
      0.9390915081820905,
      -1.2973654455780528,
      -1.900993543242664,
      1.3001055597929216,
      0.27463925805320777,
      -1.14950921240197,
      -1.5013815312063663,
      1.6250628261350029,
      0.6411740162939026,
      1.0244147788751707,
      -1.2735603919339473,
      1.0863810375652783,
      -1.2025695574423985
    ],
    [
      0.5977760866503568,
      1.2985059140636697,
      0.5067299999443291,
      0.03918788202870793,
      0.858604707051148,
      -1.4508142036744704,
      -0.45709945372010363,
      -1.9517077160115388,
      -1.922801305821979,
      -1.326003468092157,
      1.5707901927368333,
      1.7915941421819168,
      -0.38628270959071287,
      -1.510992268755576,
      0.3691281966399673,
      -0.42024425080400807,
      -0.1737253546841,
      0.009528430928556375,
      0.0932085244778822,
      1.5868024246671144,
      0.13038916910184462,
      2.5058388168812673,
      -0.22979193386456043,
      1.0133868053542932,
      -0.19827105306711434,
      1.59508816510791,
      1.640488381787752,
      1.7140478554273626,
      1.2626642389243452,
      -1.674235266365864,
      1.7244010759376813,
      -0.10207056264282333,
      1.316649562508597,
      -1.4202620830735038,
      1.7210574736538726,
      0.7146036150213106,
      1.7122062110372065,
      1.2139241948613808,
      -0.5048782833317604,
      0.7465039450184046,
      0.7957326222356773,
      -1.9067191615200034,
      1.7810942063238624,
      -1.3214240681222345,
      -1.8602705851552113,
      -0.8269041021664236,
      1.3895171192174196,
      1.9125825941905807,
      -1.6200760698801302,
      0.25606224374721887,
      0.7695809480749984,
      0.15293295851885969,
      0.06047474470489611,
      0.897347784552676,
      -1.0397891853576366,
      -0.690444544265155,
      1.7923515365550262,
      1.3640730198715962,
      -1.675699619166168,
      -0.11664498779884358,
      0.95359221343928,
      -0.20344032447646576,
      -1.357981728537002,
      1.9622085811058714,
      -1.8561740560245639,
      0.5250617661096166,
      0.8225360439016445,
      -0.7988475079085173,
      -1.922889239002946,
      -0.29413788558886456,
      -0.6111501732273394,
      1.1981868620586953
    ],
    [
      0.12368301238062784,
      -1.0386269264673524,
      0.0934401742997446,
      -1.9810525303765312,
      0.2076158700898949,
      0.28887754308576774,
      -0.29719331150649175,
      1.421835013615003,
      1.1110064706258944,
      1.5243701868069923,
      -1.642744451232601,
      1.4701147848110843,
      -1.7684699183292336,
      -1.4060554676363974,
      -1.3263797689087369,
      1.7722325258942124,
      1.9469921560913095,
      0.5130440444762412,
      0.26622600848732003,
      1.6110656001387156,
      -1.6194211048478753,
      1.381796123209532,
      -0.8379406050554961,
      -0.6460579003557942,
      -1.723843549688783,
      -0.7982148902929316,
      0.789707153658167,
      1.7472319932593035,
      -1.4818451470822094,
      -0.8944642390512536,
      1.1221864823728334,
      -0.7825971600153867,
      -0.03394033029587096,
      1.8560870479396119,
      0.636701254027888,
      1.873107799973523,
      -0.7619995765562457,
      -0.21583423958508519,
      1.8936036902337223,
      -0.1173057791219696,
      0.48069864428017883,
      0.7910262720948831,
      0.4554775678949996,
      0.6685206989039649,
      0.35658866398270384,
      -0.2640288714216368,
      -0.22954343160989676,
      0.28767516507848523,
      -0.12393445667542746,
      -1.2263627723222976,
      0.8665175417486841,
      -0.8324914941443211,
      -0.5444175584321496,
      1.1673468894292318,
      0.5050812807059915,
      -1.7078540468046848,
      1.6498142992428297,
      0.8359643493606495,
      1.7758506195485015,
      -1.9630397437552638,
      -0.7472817230229962,
      -0.856497713611736,
      -1.4374998863522253,
      1.5182984099146717,
      -1.3707971918669255,
      -0.8253409820395214,
      0.954254564799804,
      1.6022367788567538,
      -1.8930342844603611,
      -1.565045365090974,
      -1.8011974958358818,
      0.2413976641574127
    ],
    [
      1.7926008430338296,
      0.6096071503781308,
      -0.3036760219070569,
      1.9762507489203491,
      1.16426961200602,
      -0.6495612215654685,
      1.0792915113097656,
      1.0111204754280534,
      0.767835430293295,
      1.8423664669777384,
      1.7846134732998005,
      0.8934353570241109,
      0.44502393786706573,
      1.638860132008908,
      0.32338756353452425,
      1.5393127328526934,
      -1.4536633334661477,
      1.9319898625565548,
      -0.9452292419471329,
      0.16633663048547742,
      -0.35832422932945107,
      2.0453921582353405,
      0.785421965026128,
      1.4823501364009113,
      -1.545405242299343,
      0.781022284608369,
      -0.6374297219999843,
      0.5942689194411876,
      0.976741939305195,
      -0.09939557097104945,
      0.7416369474370015,
      -0.03881470241236684,
      1.2645916978185276,
      -0.17556436050817936,
      -0.4264155615140277,
      0.10548238216254102,
      1.1850453198575188,
      0.5275048852596482,
      1.8884771220150904,
      1.5247000316953523,
      1.1294683534750165,
      0.612204817966445,
      0.5021266029619005,
      0.3897102474987282,
      1.9623302319458098,
      1.6064546177496828,
      -1.367834949490332,
      0.048713352030819834,
      -1.6397353477824463,
      1.2190496215202797,
      -1.889173570803429,
      0.7912247100623357,
      1.216462359636048,
      1.7108590938687671,
      1.236194580283506,
      -0.41200958236881213,
      1.8116871589924877,
      -1.86891049483887,
      -0.5154163156222173,
      1.4823234262796277,
      -0.02473449759442392,
      1.6983415112275733,
      -1.609209753850248,
      0.2338035018605531,
      1.7811376564965524,
      1.2020820153874432,
      -1.0896801812163774,
      1.2465230103931688,
      -1.1374598691034228,
      -1.4843731635144142,
      0.10395458448982708,
      -1.9333750533046405
    ],
    [
      0.937136765717006,
      -0.8639751798893576,
      0.5106698644814314,
      0.532722134158444,
      1.8040780755749388,
      1.917228065183072,
      1.5603255817661,
      1.9795789269184567,
      0.009129341638346666,
      -0.5785655288778022,
      -1.356194042883212,
      1.869421728715431,
      0.5561373178436888,
      1.4872834889453888,
      1.7195251336446127,
      -0.5157773795177647,
      0.9688625613977004,
      0.8538533865476046,
      1.570405446268099,
      -0.7831606273205587,
      -1.709906704829331,
      2.580897070901467,
      0.68315654369255,
      0.8635667440445767,
      -1.8928098191954303,
      -1.8596302394066422,
      -1.2288140068049485,
      -0.02419076892347949,
      0.2631377577758016,
      -1.1139670199471565,
      0.3721438640685708,
      0.4100895921822074,
      -0.9692147744956303,
      -0.1070644205666369,
      1.8757137075741683,
      -1.1798593004712927,
      -0.3001415119760056,
      1.982004952488385,
      0.33112384217552027,
      -0.20946784049622735,
      -1.9889579282777214,
      0.07551000821612774,
      -1.0915118488108169,
      -1.039735072254846,
      -1.7410764251660584,
      1.774652414876936,
      0.9721252307567614,
      -0.3569006201867442,
      0.19359128826459404,
      -1.7505364814132447,
      1.8123371310788423,
      -0.7773524779639613,
      -0.34122474506469747,
      0.5740053666092946,
      -1.6333761925090338,
      0.9258256117655392,
      0.9194198080943385,
      -0.8630078857311707,
      1.616610566891084,
      -1.0020043543952264,
      -1.1038680636270168,
      1.067399864705867,
      1.6727333478925415,
      1.0244164146591253,
      0.16177452354491173,
      -0.9197095231274428,
      -1.0890956125959006,
      -0.7817658435630905,
      -0.7241973167022584,
      1.5365071259976704,
      -0.09422550716732658,
      -1.0394684544953376
    ]
  ],
  "biases": [
    2.0806832927818797,
    1.7255076814258052,
    1.2508093577136905,
    1.4119247803948662,
    2.0382274987837943,
    2.0689458489746917,
    1.4259242982364495,
    0.5677204211063485,
    1.9940569274835624
  ],
  "database": [
    {
      "title": "Sesi Built-in Functions Reference",
      "description": "A comprehensive guide to the core built-in functions, standard library modules, and system operations available in the Sesi programming language.",
      "summary": "Sesi provides a robust set of built-in functions for I/O, type conversion, collection manipulation, file system interaction, networking, and system-level tasks. It supports structured error handling, module imports via a hierarchical resolution path, and includes specialized functions for workflow orchestration and tool definition.",
      "code_examples": [
        {
          "description": "Basic I/O and type conversion",
          "code": "print \"Value:\", 10 + 20\nlet val = num(\"42\")\nlet is_valid = bool(1)"
        },
        {
          "description": "File system and JSON operations",
          "code": "let data = read_file(\"config.json\")\nlet obj = from_json(data)\nwrite_file(\"output.txt\", to_json(obj))"
        },
        {
          "description": "Workflow and tool definition",
          "code": "define_tool(\"summarizer\", fn(t) { return \"Summary: \" + t }, \"Summarizes text\")\nlet result = workflow([{\"prompt\": \"Summarize:\"}], \"Input text\")"
        },
        {
          "description": "Module importing",
          "code": "import { PI, sqrt } from \"std/math\"\nimport { sleep } from \"std/time\""
        }
      ],
      "key_rules": [
        "Paths for file system functions are resolved relative to the current working directory.",
        "The `workflow` function automatically chains step outputs as input for subsequent steps.",
        "Module resolution follows a strict priority: Script directory > Current working directory > SESI_PATH > ~/.sesi/lib.",
        "Structured error handling is performed via `try/catch` blocks; `raise_error` terminates execution.",
        "Collection functions like `push` modify arrays in-place.",
        "Standard library modules (v1.3+) must be imported using the `import { ... } from \"std/...\"` syntax.",
        "Functions like `num`, `len`, `keys`, and `values` return `null` upon failure or invalid input."
      ]
    },
    {
      "title": "Data Analyzer and CSV Processor",
      "description": "A comprehensive utility module for parsing, manipulating, and performing statistical analysis on CSV-formatted data.",
      "summary": "This module provides a robust suite of tools for processing tabular data, including CSV parsing, record filtering, and sorting. It includes advanced analytical functions for computing descriptive statistics such as mean, median, mode, and standard deviation. Additionally, the library supports data validation and serialization into multiple formats, including JSON, Excel-compatible XML, and Word-compatible XML. The implementation relies on custom algorithms for tasks like square root calculation and sorting to maintain independence from external dependencies.",
      "code_examples": [
        {
          "description": "Parsing a CSV string and computing the average of a numeric field",
          "code": "let data = parse_csv(\"name,score\\nAlice,85\\nBob,92\");\nlet avg = compute_average(data, \"score\");"
        },
        {
          "description": "Validating records for required fields and exporting to JSON",
          "code": "let issues = validate_records(data, [\"name\", \"score\"]);\nlet jsonOutput = export_to_json(data);"
        }
      ],
      "key_rules": [
        "Numerical operations require explicit coercion using the '- 0' syntax to ensure proper type handling.",
        "The module uses a custom Newton-Raphson implementation for square root calculations as no built-in function is available.",
        "CSV parsing assumes the first row of the input string contains the headers.",
        "The sorting implementation uses a standard Bubble Sort algorithm, which may have performance implications on very large datasets."
      ]
    },
    {
      "title": "Sesi DB Helper",
      "description": "A lightweight, zero-dependency flat-file JSON database utility for persistent stateful storage in Sesi.",
      "summary": "This module provides a comprehensive suite of CRUD operations for managing local JSON-based data collections. It includes features for record insertion with auto-generated IDs, advanced filtering with AND logic, pagination, and sorting. Additionally, it supports collection management, bulk deletion, and built-in backup/restore functionality to ensure data integrity. The database is stored as a single flat file, making it ideal for simple, local-first applications.",
      "code_examples": [
        {
          "description": "Initialize the database and insert a new record into a collection.",
          "code": "init_db(\"data.json\");\ninsert_record(\"data.json\", \"users\", {\"name\": \"Alice\", \"role\": \"admin\"});"
        },
        {
          "description": "Retrieve paginated records from a collection with a filter.",
          "code": "let results = find_records_paginated(\"data.json\", \"users\", \"role\", \"admin\", 10, 0);"
        }
      ],
      "key_rules": [
        "The database must be initialized via init_db or read_db before performing operations to ensure the file structure exists.",
        "Records are automatically assigned a unique 'id' field upon insertion using a combination of time and random values.",
        "All write operations (insert, update, delete) trigger a full file rewrite, which may impact performance on very large datasets.",
        "The module relies on standard JSON parsing and file system access, requiring appropriate read/write permissions for the target path."
      ]
    },
    {
      "title": "Sesi Programming Language",
      "description": "A highly legible, buildable programming language designed for parsing text, orchestrating shell commands, and interacting with the file system. It features a tree-walking interpreter, static type safety with runtime flexibility, and native integration for external logic execution.",
      "summary": "Sesi is a TypeScript-based language that prioritizes simplicity and transparency. It provides a clean syntax for standard programming constructs (variables, functions, control flow) alongside specialized primitives for external service interaction, structured output, and memory management. The implementation is modular, consisting of a recursive descent parser and a tree-walking interpreter, supported by a comprehensive suite of built-in functions for I/O, networking, and concurrency.",
      "code_examples": [
        {
          "description": "Basic function definition",
          "code": "fn add(a: number, b: number) -> number {return a + b}"
        },
        {
          "description": "Control flow example",
          "code": "if condition { print \"True\" } else { print \"False\" }"
        }
      ],
      "key_rules": [
        "The language uses a tree-walking interpreter for clarity and maintainability.",
        "Expressions ending in '}' do not require explicit statement termination (semicolons or newlines)."
      ]
    },
    {
      "title": "Programmatic Markdown-to-HTML Compiler",
      "description": "A high-performance markdown parser and layout engine that uses string segmentation instead of regex to convert markdown files into styled HTML.",
      "summary": "This module provides a comprehensive suite of tools for parsing markdown syntax, including inline formatting like bold, italics, links, and code spans, as well as block-level elements such as tables, blockquotes, task lists, and footnotes. It features a modular design with both original and extended parsing functions, allowing for flexible compilation of individual files or entire directories. The engine includes built-in styling for generated HTML elements and supports advanced features like Mermaid diagram blocks and footnote collection. It is designed for efficiency, avoiding heavy regex engines in favor of custom string-splitting logic.",
      "code_examples": [
        {
          "description": "Compile a single markdown file using the full-featured parser.",
          "code": "compile_markdown_file_full(\"input.md\", \"output.html\", \"My Document\")"
        },
        {
          "description": "Batch compile all markdown files within a specific directory.",
          "code": "compile_markdown_dir(\"./docs\", \"./dist\")"
        }
      ],
      "key_rules": [
        "The parser uses custom string segmentation logic rather than standard regular expressions for performance.",
        "Inline formatting like bold and italics must be balanced within the same line to be parsed correctly.",
        "Table parsing requires a header row followed by a separator row of dashes to trigger the table compilation logic.",
        "Footnote definitions must follow the '[^key]: text' format to be correctly extracted by the collector.",
        "The compiler automatically handles block-level state transitions (e.g., closing open lists or tables) when encountering new block types or code markers."
      ]
    },
    {
      "title": "webpage-factory Project Documentation",
      "description": "A self-contained Sesi project designed for programmatically compiling responsive HTML pages, data reports, and visual charts.",
      "summary": "The webpage-factory project provides a comprehensive suite of Sesi modules for building static web content without client-side JavaScript. It includes tools for site construction, markdown parsing, SVG-based data visualization, and CSV data analysis. Additionally, it features a flat-file JSON database engine for persistent storage and management. The project is managed via a CLI that supports compilation, linting, and file encryption tasks.",
      "code_examples": [
        {
          "description": "Execute the main Sesi program",
          "code": "npm start"
        },
        {
          "description": "Import and use a site-builder function",
          "code": "import { generate_page } from \"site-builder\";\ngenerate_page(\"My Title\", \"<h1>Hello World</h1>\");"
        }
      ],
      "key_rules": [
        "All visual charts are rendered as pure HTML/CSS/SVG with zero client-side JavaScript.",
        "The project utilizes a custom Sesi interpreter and CLI for all compilation and execution tasks.",
        "Database operations are performed using a flat-file JSON storage engine.",
        "The site-builder module provides functions for generating responsive layouts such as bento grids, accordions, and modals."
      ]
    },
    {
      "title": "Sesi Native Webpage Generator",
      "description": "A comprehensive library for programmatically generating static websites, UI components, and layout assets using Sesi.",
      "summary": "This module provides a suite of functions for building modular web pages, including layout factories, interactive UI components like accordions and modals, and SEO metadata generation. It features robust error handling and input validation wrappers to ensure reliable site construction. The library also includes advanced capabilities such as concurrent page building using worker scripts and AI-assisted content generation. It is designed to streamline the creation of structured, responsive, and accessible web interfaces.",
      "code_examples": [
        {
          "description": "Generating a simple webpage with a hero banner and SEO metadata.",
          "code": "let meta = {title: 'Home', description: 'Welcome', keywords: 'web, sesi', author: 'Dev', image: 'hero.png'};\nlet content = compile_hero_banner('Hello', 'Welcome to my site', 'Learn More', '/about');\nsave_page('index.html', 'Home', generate_seo_metadata(meta) + content);"
        },
        {
          "description": "Creating a responsive grid layout.",
          "code": "let css = generate_responsive_layout('.container', 3, 1);\nwrite_file('layout.css', css);"
        }
      ],
      "key_rules": [
        "All page generation functions rely on the base 'create_header' and 'create_footer' templates for structural consistency.",
        "The library uses 'assert_' prefixed functions to enforce strict input validation for strings, arrays, and numbers.",
        "Concurrent builds require the use of 'concurrent_build', which spawns separate worker processes to handle asset generation in parallel.",
        "AI-assisted functions like 'generatePageContent' include fallback mechanisms to ensure static content generation if the model call fails."
      ]
    },
    {
      "title": "Sesi Language Specification (v1.5)",
      "description": "A concise, legible, and practical programming language designed for frictionless script development, process orchestration, and integration with external models.",
      "summary": "Sesi is a minimal, buildable language featuring a clean syntax and a robust module system. It emphasizes transparency and practicality with built-in support for process spawning, file system operations, and cross-platform library management.",
      "code_examples": [
        {
          "description": "Basic variable declaration and arithmetic",
          "code": "let x = 10\nlet y = 20\nprint x + y"
        },
        {
          "description": "Function declaration with type annotations",
          "code": "fn add(a: number, b: number) {print a + b}"
        },
        {
          "description": "Module import and usage",
          "code": "import {add} from \"math\"\nlet result = add(10, 20)"
        }
      ],
      "key_rules": [
        "Execution is strictly blocking; concurrency is handled via spawn().",
        "Variables are declared using 'let'; functions use 'fn'.",
        "Module resolution follows a strict priority: Script directory -> Working directory -> SESI_PATH -> ~/.sesi/lib.",
        "Structured output requires a schema definition and provides type-safe access to returned fields.",
        "Null propagation: Operations on null return null without throwing exceptions.",
        "Lexical scoping applies; inner scopes shadow outer scopes.",
        "Requires Node.js 18+."
      ]
    },
    {
      "title": "Sesi Native Brutalist Visual Charting Engine",
      "description": "A specialized library for generating high-density, static dashboard visualizations using pure HTML, CSS, and SVG without client-side JavaScript.",
      "summary": "This engine provides a suite of functions to render various data visualizations including bar charts, sparklines, gauges, pie/donut charts, heatmaps, scatter plots, radar charts, funnels, candlesticks, and treemaps. It utilizes a 'brutalist' aesthetic, characterized by high-contrast colors and clean, geometric SVG paths. The library is designed for low-latency, server-side generation of static dashboard components. It includes internal trigonometric helpers for SVG arc calculations and dynamic color-coding logic based on data thresholds.",
      "code_examples": [
        {
          "description": "Generating a simple horizontal bar chart",
          "code": "let data = [{\"label\": \"CPU\", \"value\": 45}, {\"label\": \"RAM\", \"value\": 72}];\nlet chart = compile_bar_chart(data, \"System Load\");"
        },
        {
          "description": "Generating a sparkline from a numeric array",
          "code": "let values = [10, 25, 15, 40, 30];\nlet spark = compile_sparkline(values, \"Traffic Trends\");"
        }
      ],
      "key_rules": [
        "All charts are rendered as static HTML/SVG strings; no client-side JavaScript is required for interactivity or rendering.",
        "The engine uses a specific 'brutalist' color palette, primarily relying on neon greens, reds, and yellows for status indicators.",
        "SVG coordinate systems are hard-coded for specific viewboxes, requiring data normalization within the functions.",
        "The library includes custom trigonometric approximations (Taylor series) for sine and cosine to handle SVG path geometry."
      ]
    }
  ]
}